<?xml version="1.0"?>
<opencv_storage>
<!-- Created using Computer Vision System Toolbox(tm) for MATLAB(R) -->
<!-- Version 9.4.0.813654 (R2018a) -->
<!-- Compatible with OpenCV 3.1 -->
<cascade>
  <stageType>BOOST</stageType>
  <featureType>HAAR</featureType>
  <height>36</height>
  <width>32</width>
  <stageParams>
    <boostType>GAB</boostType>
    <minHitRate>9.9500000476837158e-01</minHitRate>
    <maxFalseAlarm>5.0000000000000000e-01</maxFalseAlarm>
    <weightTrimRate>9.4999999999999996e-01</weightTrimRate>
    <maxDepth>1</maxDepth>
    <maxWeakCount>100</maxWeakCount></stageParams>
  <featureParams>
    <maxCatCount>0</maxCatCount>
    <featSize>1</featSize>
    <mode>BASIC</mode></featureParams>
  <stageNum>24</stageNum>
  <stages>
    <!-- stage 0 -->
    <_>
      <maxWeakCount>2</maxWeakCount>
      <stageThreshold>-2.9885810613632202e-01</stageThreshold>
      <weakClassifiers>
        <_>
          <internalNodes>
            0 -1 35 4.3172087520360947e-02</internalNodes>
          <leafValues>
            -8.8135594129562378e-01 8.2142859697341919e-01</leafValues></_>
        <_>
          <internalNodes>
            0 -1 39 1.7980584874749184e-02</internalNodes>
          <leafValues>
            -9.6341294050216675e-01 5.8249783515930176e-01</leafValues></_></weakClassifiers></_>
    <!-- stage 1 -->
    <_>
      <maxWeakCount>3</maxWeakCount>
      <stageThreshold>-7.0993763208389282e-01</stageThreshold>
      <weakClassifiers>
        <_>
          <internalNodes>
            0 -1 6 1.8675237894058228e-01</internalNodes>
          <leafValues>
            -8.3999997377395630e-01 9.5918369293212891e-01</leafValues></_>
        <_>
          <internalNodes>
            0 -1 29 -5.4651707410812378e-02</internalNodes>
          <leafValues>
            9.4914495944976807e-01 -7.1716928482055664e-01</leafValues></_>
        <_>
          <internalNodes>
            0 -1 3 1.4725741744041443e-01</internalNodes>
          <leafValues>
            -8.1908261775970459e-01 8.7149995565414429e-01</leafValues></_></weakClassifiers></_>
    <!-- stage 2 -->
    <_>
      <maxWeakCount>3</maxWeakCount>
      <stageThreshold>-7.9442828893661499e-01</stageThreshold>
      <weakClassifiers>
        <_>
          <internalNodes>
            0 -1 4 -2.0614844560623169e-01</internalNodes>
          <leafValues>
            9.0243899822235107e-01 -7.1428573131561279e-01</leafValues></_>
        <_>
          <internalNodes>
            0 -1 0 2.5641852617263794e-01</internalNodes>
          <leafValues>
            -5.8631992340087891e-01 9.2772787809371948e-01</leafValues></_>
        <_>
          <internalNodes>
            0 -1 52 1.3066852989140898e-04</internalNodes>
          <leafValues>
            5.0617736577987671e-01 -1.</leafValues></_></weakClassifiers></_>
    <!-- stage 3 -->
    <_>
      <maxWeakCount>3</maxWeakCount>
      <stageThreshold>-6.9710832834243774e-01</stageThreshold>
      <weakClassifiers>
        <_>
          <internalNodes>
            0 -1 30 -1.7142480611801147e-01</internalNodes>
          <leafValues>
            1. -6.8115943670272827e-01</leafValues></_>
        <_>
          <internalNodes>
            0 -1 2 3.3670711517333984e-01</internalNodes>
          <leafValues>
            -5.2445477247238159e-01 9.2484706640243530e-01</leafValues></_>
        <_>
          <internalNodes>
            0 -1 13 8.2293979823589325e-02</internalNodes>
          <leafValues>
            -9.4079601764678955e-01 5.6781542301177979e-01</leafValues></_></weakClassifiers></_>
    <!-- stage 4 -->
    <_>
      <maxWeakCount>2</maxWeakCount>
      <stageThreshold>-2.4969533085823059e-01</stageThreshold>
      <weakClassifiers>
        <_>
          <internalNodes>
            0 -1 12 -2.5640982389450073e-01</internalNodes>
          <leafValues>
            6.9230771064758301e-01 -6.2962961196899414e-01</leafValues></_>
        <_>
          <internalNodes>
            0 -1 44 -1.0848678648471832e-03</internalNodes>
          <leafValues>
            -1. 3.7993428111076355e-01</leafValues></_></weakClassifiers></_>
    <!-- stage 5 -->
    <_>
      <maxWeakCount>1</maxWeakCount>
      <stageThreshold>1.3725490868091583e-01</stageThreshold>
      <weakClassifiers>
        <_>
          <internalNodes>
            0 -1 31 -1.0770458029583097e-03</internalNodes>
          <leafValues>
            -1. 1.3725490868091583e-01</leafValues></_></weakClassifiers></_>
    <!-- stage 6 -->
    <_>
      <maxWeakCount>3</maxWeakCount>
      <stageThreshold>-2.2519506514072418e-01</stageThreshold>
      <weakClassifiers>
        <_>
          <internalNodes>
            0 -1 47 1.4314005966298282e-04</internalNodes>
          <leafValues>
            1.1999999731779099e-01 -9.4594591856002808e-01</leafValues></_>
        <_>
          <internalNodes>
            0 -1 38 2.5153385940939188e-03</internalNodes>
          <leafValues>
            4.6638619899749756e-01 -7.2489500045776367e-01</leafValues></_>
        <_>
          <internalNodes>
            0 -1 27 -4.7520030057057738e-04</internalNodes>
          <leafValues>
            -8.1158125400543213e-01 5.4406440258026123e-01</leafValues></_></weakClassifiers></_>
    <!-- stage 7 -->
    <_>
      <maxWeakCount>3</maxWeakCount>
      <stageThreshold>-4.8514565825462341e-01</stageThreshold>
      <weakClassifiers>
        <_>
          <internalNodes>
            0 -1 40 2.1313491743057966e-04</internalNodes>
          <leafValues>
            5.6603774428367615e-02 -9.4117647409439087e-01</leafValues></_>
        <_>
          <internalNodes>
            0 -1 45 -1.6013185086194426e-04</internalNodes>
          <leafValues>
            -8.3234834671020508e-01 3.2730719447135925e-01</leafValues></_>
        <_>
          <internalNodes>
            0 -1 41 2.3997863754630089e-03</internalNodes>
          <leafValues>
            4.9750810861587524e-01 -8.6905664205551147e-01</leafValues></_></weakClassifiers></_>
    <!-- stage 8 -->
    <_>
      <maxWeakCount>3</maxWeakCount>
      <stageThreshold>-5.3897136449813843e-01</stageThreshold>
      <weakClassifiers>
        <_>
          <internalNodes>
            0 -1 24 1.4868132711853832e-04</internalNodes>
          <leafValues>
            8.5714288055896759e-02 -9.7101449966430664e-01</leafValues></_>
        <_>
          <internalNodes>
            0 -1 51 1.1621741577982903e-04</internalNodes>
          <leafValues>
            2.7135688066482544e-01 -9.6175062656402588e-01</leafValues></_>
        <_>
          <internalNodes>
            0 -1 7 3.1545222736895084e-04</internalNodes>
          <leafValues>
            3.3706495165824890e-01 -8.9541673660278320e-01</leafValues></_></weakClassifiers></_>
    <!-- stage 9 -->
    <_>
      <maxWeakCount>4</maxWeakCount>
      <stageThreshold>-1.0054470300674438e+00</stageThreshold>
      <weakClassifiers>
        <_>
          <internalNodes>
            0 -1 43 5.3051742725074291e-04</internalNodes>
          <leafValues>
            2.5000000000000000e-01 -8.2978725433349609e-01</leafValues></_>
        <_>
          <internalNodes>
            0 -1 54 1.3453283463604748e-04</internalNodes>
          <leafValues>
            2.6947444677352905e-01 -9.6483361721038818e-01</leafValues></_>
        <_>
          <internalNodes>
            0 -1 22 -1.0175963689107448e-04</internalNodes>
          <leafValues>
            -8.5604852437973022e-01 3.3114746212959290e-01</leafValues></_>
        <_>
          <internalNodes>
            0 -1 16 -2.0691328973043710e-04</internalNodes>
          <leafValues>
            -9.3786317110061646e-01 4.1091424226760864e-01</leafValues></_></weakClassifiers></_>
    <!-- stage 10 -->
    <_>
      <maxWeakCount>3</maxWeakCount>
      <stageThreshold>3.2052434980869293e-02</stageThreshold>
      <weakClassifiers>
        <_>
          <internalNodes>
            0 -1 57 -1.1862214654684067e-02</internalNodes>
          <leafValues>
            8.6206895112991333e-01 -5.7241380214691162e-01</leafValues></_>
        <_>
          <internalNodes>
            0 -1 33 -1.0464496881468222e-04</internalNodes>
          <leafValues>
            -1. 3.3944150805473328e-01</leafValues></_>
        <_>
          <internalNodes>
            0 -1 46 -1.4427234418690205e-04</internalNodes>
          <leafValues>
            -9.8139721155166626e-01 2.6502472162246704e-01</leafValues></_></weakClassifiers></_>
    <!-- stage 11 -->
    <_>
      <maxWeakCount>2</maxWeakCount>
      <stageThreshold>-2.4863657355308533e-01</stageThreshold>
      <weakClassifiers>
        <_>
          <internalNodes>
            0 -1 49 -1.0253467735310551e-05</internalNodes>
          <leafValues>
            5.8208954334259033e-01 -9.0654206275939941e-01</leafValues></_>
        <_>
          <internalNodes>
            0 -1 18 -9.7472411653143354e-06</internalNodes>
          <leafValues>
            7.2396230697631836e-01 -8.3072614669799805e-01</leafValues></_></weakClassifiers></_>
    <!-- stage 12 -->
    <_>
      <maxWeakCount>2</maxWeakCount>
      <stageThreshold>-2.8455945849418640e-01</stageThreshold>
      <weakClassifiers>
        <_>
          <internalNodes>
            0 -1 25 8.1313992268405855e-06</internalNodes>
          <leafValues>
            -7.7391302585601807e-01 5.2542370557785034e-01</leafValues></_>
        <_>
          <internalNodes>
            0 -1 26 7.7506920206360519e-06</internalNodes>
          <leafValues>
            -8.0998319387435913e-01 6.9282275438308716e-01</leafValues></_></weakClassifiers></_>
    <!-- stage 13 -->
    <_>
      <maxWeakCount>3</maxWeakCount>
      <stageThreshold>-3.6693191528320313e-01</stageThreshold>
      <weakClassifiers>
        <_>
          <internalNodes>
            0 -1 15 2.4719472276046872e-04</internalNodes>
          <leafValues>
            1.3402061164379120e-01 -9.2207789421081543e-01</leafValues></_>
        <_>
          <internalNodes>
            0 -1 32 -1.0333538739359938e-05</internalNodes>
          <leafValues>
            4.3540221452713013e-01 -7.6338964700698853e-01</leafValues></_>
        <_>
          <internalNodes>
            0 -1 21 -1.4229273074306548e-04</internalNodes>
          <leafValues>
            -1. 2.6243713498115540e-01</leafValues></_></weakClassifiers></_>
    <!-- stage 14 -->
    <_>
      <maxWeakCount>2</maxWeakCount>
      <stageThreshold>-6.4460039138793945e-01</stageThreshold>
      <weakClassifiers>
        <_>
          <internalNodes>
            0 -1 23 -1.1704310600180179e-04</internalNodes>
          <leafValues>
            -9.0123456716537476e-01 1.6129031777381897e-01</leafValues></_>
        <_>
          <internalNodes>
            0 -1 10 -2.1709123393520713e-04</internalNodes>
          <leafValues>
            -1. 2.5663420557975769e-01</leafValues></_></weakClassifiers></_>
    <!-- stage 15 -->
    <_>
      <maxWeakCount>4</maxWeakCount>
      <stageThreshold>-4.4070398807525635e-01</stageThreshold>
      <weakClassifiers>
        <_>
          <internalNodes>
            0 -1 33 1.0639007086865604e-04</internalNodes>
          <leafValues>
            1.0000000149011612e-01 -9.1891890764236450e-01</leafValues></_>
        <_>
          <internalNodes>
            0 -1 58 -3.8157715462148190e-03</internalNodes>
          <leafValues>
            8.6934095621109009e-01 -4.5144942402839661e-01</leafValues></_>
        <_>
          <internalNodes>
            0 -1 17 5.2160210907459259e-04</internalNodes>
          <leafValues>
            6.5416109561920166e-01 -4.8007625341415405e-01</leafValues></_>
        <_>
          <internalNodes>
            0 -1 8 9.8958169110119343e-04</internalNodes>
          <leafValues>
            5.1320457458496094e-01 -7.4341565370559692e-01</leafValues></_></weakClassifiers></_>
    <!-- stage 16 -->
    <_>
      <maxWeakCount>4</maxWeakCount>
      <stageThreshold>-5.7992446422576904e-01</stageThreshold>
      <weakClassifiers>
        <_>
          <internalNodes>
            0 -1 36 3.3645175397396088e-02</internalNodes>
          <leafValues>
            -5.6944441795349121e-01 8.0000001192092896e-01</leafValues></_>
        <_>
          <internalNodes>
            0 -1 48 9.9219090770930052e-05</internalNodes>
          <leafValues>
            4.7002923488616943e-01 -7.8634274005889893e-01</leafValues></_>
        <_>
          <internalNodes>
            0 -1 14 -6.7881745053455234e-05</internalNodes>
          <leafValues>
            -1. 3.4527724981307983e-01</leafValues></_>
        <_>
          <internalNodes>
            0 -1 19 -8.1923390098381788e-06</internalNodes>
          <leafValues>
            4.5428183674812317e-01 -8.2578653097152710e-01</leafValues></_></weakClassifiers></_>
    <!-- stage 17 -->
    <_>
      <maxWeakCount>4</maxWeakCount>
      <stageThreshold>-3.0496361851692200e-01</stageThreshold>
      <weakClassifiers>
        <_>
          <internalNodes>
            0 -1 24 -1.0197647497989237e-04</internalNodes>
          <leafValues>
            -7.9166668653488159e-01 2.3076923191547394e-01</leafValues></_>
        <_>
          <internalNodes>
            0 -1 9 1.1775900202337652e-04</internalNodes>
          <leafValues>
            2.8112131357192993e-01 -8.9800274372100830e-01</leafValues></_>
        <_>
          <internalNodes>
            0 -1 56 -7.1306144818663597e-03</internalNodes>
          <leafValues>
            7.9873883724212646e-01 -4.5400583744049072e-01</leafValues></_>
        <_>
          <internalNodes>
            0 -1 55 4.0516760200262070e-03</internalNodes>
          <leafValues>
            -3.6284831166267395e-01 8.4055912494659424e-01</leafValues></_></weakClassifiers></_>
    <!-- stage 18 -->
    <_>
      <maxWeakCount>4</maxWeakCount>
      <stageThreshold>-5.3477299213409424e-01</stageThreshold>
      <weakClassifiers>
        <_>
          <internalNodes>
            0 -1 50 1.4707613736391068e-02</internalNodes>
          <leafValues>
            -4.8529410362243652e-01 9.1666668653488159e-01</leafValues></_>
        <_>
          <internalNodes>
            0 -1 28 5.6867882609367371e-02</internalNodes>
          <leafValues>
            -4.9017488956451416e-01 6.3904672861099243e-01</leafValues></_>
        <_>
          <internalNodes>
            0 -1 20 -7.5000367360189557e-05</internalNodes>
          <leafValues>
            -9.4127285480499268e-01 3.7488591670989990e-01</leafValues></_>
        <_>
          <internalNodes>
            0 -1 37 -9.0436602476984262e-05</internalNodes>
          <leafValues>
            -1. 2.5274726748466492e-01</leafValues></_></weakClassifiers></_>
    <!-- stage 19 -->
    <_>
      <maxWeakCount>2</maxWeakCount>
      <stageThreshold>-3.6114981770515442e-01</stageThreshold>
      <weakClassifiers>
        <_>
          <internalNodes>
            0 -1 1 -3.7175507750362158e-03</internalNodes>
          <leafValues>
            -8.4615385532379150e-01 6.2318837642669678e-01</leafValues></_>
        <_>
          <internalNodes>
            0 -1 34 2.2209217422641814e-04</internalNodes>
          <leafValues>
            4.8500403761863708e-01 -1.</leafValues></_></weakClassifiers></_>
    <!-- stage 20 -->
    <_>
      <maxWeakCount>3</maxWeakCount>
      <stageThreshold>5.8617520332336426e-01</stageThreshold>
      <weakClassifiers>
        <_>
          <internalNodes>
            0 -1 42 1.6800123266875744e-03</internalNodes>
          <leafValues>
            7.7777779102325439e-01 -8.0000001192092896e-01</leafValues></_>
        <_>
          <internalNodes>
            0 -1 53 2.1481359726749361e-04</internalNodes>
          <leafValues>
            7.4296587705612183e-01 -7.4982398748397827e-01</leafValues></_>
        <_>
          <internalNodes>
            0 -1 59 1.0098900645971298e-02</internalNodes>
          <leafValues>
            6.4320933818817139e-01 -8.3097773790359497e-01</leafValues></_></weakClassifiers></_>
    <!-- stage 21 -->
    <_>
      <maxWeakCount>1</maxWeakCount>
      <stageThreshold>8.1250000000000000e-01</stageThreshold>
      <weakClassifiers>
        <_>
          <internalNodes>
            0 -1 5 8.2315757870674133e-02</internalNodes>
          <leafValues>
            8.1250000000000000e-01 -1.</leafValues></_></weakClassifiers></_>
    <!-- stage 22 -->
    <_>
      <maxWeakCount>1</maxWeakCount>
      <stageThreshold>7.8461539745330811e-01</stageThreshold>
      <weakClassifiers>
        <_>
          <internalNodes>
            0 -1 60 5.9479456394910812e-03</internalNodes>
          <leafValues>
            7.8461539745330811e-01 -1.</leafValues></_></weakClassifiers></_>
    <!-- stage 23 -->
    <_>
      <maxWeakCount>1</maxWeakCount>
      <stageThreshold>8.1250000000000000e-01</stageThreshold>
      <weakClassifiers>
        <_>
          <internalNodes>
            0 -1 11 5.2403053268790245e-03</internalNodes>
          <leafValues>
            -1. 8.1250000000000000e-01</leafValues></_></weakClassifiers></_></stages>
  <features>
    <_>
      <rects>
        <_>
          0 6 30 19 -1.</_>
        <_>
          10 6 10 19 3.</_></rects>
      <tilted>0</tilted></_>
    <_>
      <rects>
        <_>
          0 16 1 18 -1.</_>
        <_>
          0 25 1 9 2.</_></rects>
      <tilted>0</tilted></_>
    <_>
      <rects>
        <_>
          1 6 30 22 -1.</_>
        <_>
          11 6 10 22 3.</_></rects>
      <tilted>0</tilted></_>
    <_>
      <rects>
        <_>
          2 5 30 22 -1.</_>
        <_>
          12 5 10 22 3.</_></rects>
      <tilted>0</tilted></_>
    <_>
      <rects>
        <_>
          5 13 21 20 -1.</_>
        <_>
          5 23 21 10 2.</_></rects>
      <tilted>0</tilted></_>
    <_>
      <rects>
        <_>
          6 0 26 26 -1.</_>
        <_>
          6 0 13 13 2.</_>
        <_>
          19 13 13 13 2.</_></rects>
      <tilted>0</tilted></_>
    <_>
      <rects>
        <_>
          6 0 14 36 -1.</_>
        <_>
          6 12 14 12 3.</_></rects>
      <tilted>0</tilted></_>
    <_>
      <rects>
        <_>
          6 9 6 4 -1.</_>
        <_>
          6 9 3 2 2.</_>
        <_>
          9 11 3 2 2.</_></rects>
      <tilted>0</tilted></_>
    <_>
      <rects>
        <_>
          6 10 11 6 -1.</_>
        <_>
          6 12 11 2 3.</_></rects>
      <tilted>0</tilted></_>
    <_>
      <rects>
        <_>
          6 12 4 2 -1.</_>
        <_>
          6 12 2 1 2.</_>
        <_>
          8 13 2 1 2.</_></rects>
      <tilted>0</tilted></_>
    <_>
      <rects>
        <_>
          6 18 6 2 -1.</_>
        <_>
          6 18 3 1 2.</_>
        <_>
          9 19 3 1 2.</_></rects>
      <tilted>0</tilted></_>
    <_>
      <rects>
        <_>
          7 0 14 16 -1.</_>
        <_>
          7 8 14 8 2.</_></rects>
      <tilted>0</tilted></_>
    <_>
      <rects>
        <_>
          7 12 17 24 -1.</_>
        <_>
          7 24 17 12 2.</_></rects>
      <tilted>0</tilted></_>
    <_>
      <rects>
        <_>
          8 0 24 30 -1.</_>
        <_>
          8 10 24 10 3.</_></rects>
      <tilted>0</tilted></_>
    <_>
      <rects>
        <_>
          8 10 2 2 -1.</_>
        <_>
          8 10 1 1 2.</_>
        <_>
          9 11 1 1 2.</_></rects>
      <tilted>0</tilted></_>
    <_>
      <rects>
        <_>
          8 11 3 4 -1.</_>
        <_>
          9 11 1 4 3.</_></rects>
      <tilted>0</tilted></_>
    <_>
      <rects>
        <_>
          8 12 3 4 -1.</_>
        <_>
          9 12 1 4 3.</_></rects>
      <tilted>0</tilted></_>
    <_>
      <rects>
        <_>
          8 15 5 9 -1.</_>
        <_>
          8 18 5 3 3.</_></rects>
      <tilted>0</tilted></_>
    <_>
      <rects>
        <_>
          8 22 1 2 -1.</_>
        <_>
          8 23 1 1 2.</_></rects>
      <tilted>0</tilted></_>
    <_>
      <rects>
        <_>
          8 27 1 2 -1.</_>
        <_>
          8 28 1 1 2.</_></rects>
      <tilted>0</tilted></_>
    <_>
      <rects>
        <_>
          9 8 2 4 -1.</_>
        <_>
          9 8 1 2 2.</_>
        <_>
          10 10 1 2 2.</_></rects>
      <tilted>0</tilted></_>
    <_>
      <rects>
        <_>
          9 9 1 3 -1.</_>
        <_>
          9 10 1 1 3.</_></rects>
      <tilted>0</tilted></_>
    <_>
      <rects>
        <_>
          9 9 2 4 -1.</_>
        <_>
          9 9 1 2 2.</_>
        <_>
          10 11 1 2 2.</_></rects>
      <tilted>0</tilted></_>
    <_>
      <rects>
        <_>
          9 9 4 2 -1.</_>
        <_>
          9 9 2 1 2.</_>
        <_>
          11 10 2 1 2.</_></rects>
      <tilted>0</tilted></_>
    <_>
      <rects>
        <_>
          9 9 6 2 -1.</_>
        <_>
          9 9 3 1 2.</_>
        <_>
          12 10 3 1 2.</_></rects>
      <tilted>0</tilted></_>
    <_>
      <rects>
        <_>
          9 10 1 2 -1.</_>
        <_>
          9 11 1 1 2.</_></rects>
      <tilted>0</tilted></_>
    <_>
      <rects>
        <_>
          9 15 2 1 -1.</_>
        <_>
          10 15 1 1 2.</_></rects>
      <tilted>0</tilted></_>
    <_>
      <rects>
        <_>
          9 19 16 2 -1.</_>
        <_>
          9 19 8 1 2.</_>
        <_>
          17 20 8 1 2.</_></rects>
      <tilted>0</tilted></_>
    <_>
      <rects>
        <_>
          10 5 18 12 -1.</_>
        <_>
          16 5 6 12 3.</_></rects>
      <tilted>0</tilted></_>
    <_>
      <rects>
        <_>
          11 11 5 24 -1.</_>
        <_>
          11 23 5 12 2.</_></rects>
      <tilted>0</tilted></_>
    <_>
      <rects>
        <_>
          13 12 14 22 -1.</_>
        <_>
          13 23 14 11 2.</_></rects>
      <tilted>0</tilted></_>
    <_>
      <rects>
        <_>
          13 14 12 4 -1.</_>
        <_>
          17 14 4 4 3.</_></rects>
      <tilted>0</tilted></_>
    <_>
      <rects>
        <_>
          13 24 1 2 -1.</_>
        <_>
          13 25 1 1 2.</_></rects>
      <tilted>0</tilted></_>
    <_>
      <rects>
        <_>
          14 10 4 2 -1.</_>
        <_>
          14 10 2 1 2.</_>
        <_>
          16 11 2 1 2.</_></rects>
      <tilted>0</tilted></_>
    <_>
      <rects>
        <_>
          14 15 2 4 -1.</_>
        <_>
          14 15 1 2 2.</_>
        <_>
          15 17 1 2 2.</_></rects>
      <tilted>0</tilted></_>
    <_>
      <rects>
        <_>
          15 0 3 36 -1.</_>
        <_>
          15 12 3 12 3.</_></rects>
      <tilted>0</tilted></_>
    <_>
      <rects>
        <_>
          15 5 2 24 -1.</_>
        <_>
          15 13 2 8 3.</_></rects>
      <tilted>0</tilted></_>
    <_>
      <rects>
        <_>
          15 7 2 4 -1.</_>
        <_>
          15 7 1 2 2.</_>
        <_>
          16 9 1 2 2.</_></rects>
      <tilted>0</tilted></_>
    <_>
      <rects>
        <_>
          16 4 6 27 -1.</_>
        <_>
          18 4 2 27 3.</_></rects>
      <tilted>0</tilted></_>
    <_>
      <rects>
        <_>
          16 16 16 20 -1.</_>
        <_>
          16 16 8 10 2.</_>
        <_>
          24 26 8 10 2.</_></rects>
      <tilted>0</tilted></_>
    <_>
      <rects>
        <_>
          17 24 6 2 -1.</_>
        <_>
          17 24 3 1 2.</_>
        <_>
          20 25 3 1 2.</_></rects>
      <tilted>0</tilted></_>
    <_>
      <rects>
        <_>
          18 0 4 30 -1.</_>
        <_>
          18 0 2 15 2.</_>
        <_>
          20 15 2 15 2.</_></rects>
      <tilted>0</tilted></_>
    <_>
      <rects>
        <_>
          18 24 4 12 -1.</_>
        <_>
          20 24 2 12 2.</_></rects>
      <tilted>0</tilted></_>
    <_>
      <rects>
        <_>
          18 24 10 4 -1.</_>
        <_>
          18 24 5 2 2.</_>
        <_>
          23 26 5 2 2.</_></rects>
      <tilted>0</tilted></_>
    <_>
      <rects>
        <_>
          19 8 4 8 -1.</_>
        <_>
          19 8 2 4 2.</_>
        <_>
          21 12 2 4 2.</_></rects>
      <tilted>0</tilted></_>
    <_>
      <rects>
        <_>
          20 12 2 6 -1.</_>
        <_>
          20 12 1 3 2.</_>
        <_>
          21 15 1 3 2.</_></rects>
      <tilted>0</tilted></_>
    <_>
      <rects>
        <_>
          20 15 2 4 -1.</_>
        <_>
          20 15 1 2 2.</_>
        <_>
          21 17 1 2 2.</_></rects>
      <tilted>0</tilted></_>
    <_>
      <rects>
        <_>
          21 15 3 1 -1.</_>
        <_>
          22 15 1 1 3.</_></rects>
      <tilted>0</tilted></_>
    <_>
      <rects>
        <_>
          21 15 1 6 -1.</_>
        <_>
          21 17 1 2 3.</_></rects>
      <tilted>0</tilted></_>
    <_>
      <rects>
        <_>
          22 8 4 1 -1.</_>
        <_>
          24 8 2 1 2.</_></rects>
      <tilted>0</tilted></_>
    <_>
      <rects>
        <_>
          22 10 9 13 -1.</_>
        <_>
          25 10 3 13 3.</_></rects>
      <tilted>0</tilted></_>
    <_>
      <rects>
        <_>
          22 13 2 4 -1.</_>
        <_>
          22 13 1 2 2.</_>
        <_>
          23 15 1 2 2.</_></rects>
      <tilted>0</tilted></_>
    <_>
      <rects>
        <_>
          22 20 3 3 -1.</_>
        <_>
          23 20 1 3 3.</_></rects>
      <tilted>0</tilted></_>
    <_>
      <rects>
        <_>
          24 10 2 8 -1.</_>
        <_>
          24 10 1 4 2.</_>
        <_>
          25 14 1 4 2.</_></rects>
      <tilted>0</tilted></_>
    <_>
      <rects>
        <_>
          24 27 3 1 -1.</_>
        <_>
          25 27 1 1 3.</_></rects>
      <tilted>0</tilted></_>
    <_>
      <rects>
        <_>
          25 6 6 17 -1.</_>
        <_>
          27 6 2 17 3.</_></rects>
      <tilted>0</tilted></_>
    <_>
      <rects>
        <_>
          25 10 6 11 -1.</_>
        <_>
          27 10 2 11 3.</_></rects>
      <tilted>0</tilted></_>
    <_>
      <rects>
        <_>
          26 12 6 16 -1.</_>
        <_>
          28 12 2 16 3.</_></rects>
      <tilted>0</tilted></_>
    <_>
      <rects>
        <_>
          26 21 6 4 -1.</_>
        <_>
          28 21 2 4 3.</_></rects>
      <tilted>0</tilted></_>
    <_>
      <rects>
        <_>
          30 0 2 30 -1.</_>
        <_>
          30 10 2 10 3.</_></rects>
      <tilted>0</tilted></_>
    <_>
      <rects>
        <_>
          31 6 1 30 -1.</_>
        <_>
          31 16 1 10 3.</_></rects>
      <tilted>0</tilted></_></features></cascade>
</opencv_storage>
